<?xml version="1.0"?>
<MethodSetup Method="MLP::MLP">
  <GeneralInfo>
    <Info name="TMVA Release" value="4.2.0 [262656]"/>
    <Info name="ROOT Release" value="5.34/26 [336410]"/>
    <Info name="Creator" value="jdb12"/>
    <Info name="Date" value="Mon Jul 17 18:11:58 2017"/>
    <Info name="Host" value="Darwin macfrank.rice.edu 14.1.0 Darwin Kernel Version 14.1.0: Thu Feb 26 19:26:47 PST 2015; root:xnu-2782.10.73~1/RELEASE_X86_64 x86_64"/>
    <Info name="Dir" value="/home/jdb12/work/MtdMuonPidMva/bin"/>
    <Info name="Training events" value="100000"/>
    <Info name="TrainingTime" value="5.81774087e+03"/>
    <Info name="AnalysisType" value="Classification"/>
  </GeneralInfo>
  <Options>
    <Option name="NCycles" modified="Yes">600</Option>
    <Option name="HiddenLayers" modified="Yes">N+5,N+5,N+5</Option>
    <Option name="NeuronType" modified="Yes">tanh</Option>
    <Option name="RandomSeed" modified="No">1</Option>
    <Option name="EstimatorType" modified="No">MSE</Option>
    <Option name="NeuronInputType" modified="No">sum</Option>
    <Option name="V" modified="Yes">True</Option>
    <Option name="VerbosityLevel" modified="No">Verbose</Option>
    <Option name="VarTransform" modified="Yes">N</Option>
    <Option name="H" modified="Yes">True</Option>
    <Option name="CreateMVAPdfs" modified="No">False</Option>
    <Option name="IgnoreNegWeightsInTraining" modified="No">False</Option>
    <Option name="TrainingMethod" modified="No">BP</Option>
    <Option name="LearningRate" modified="No">2.000000e-02</Option>
    <Option name="DecayRate" modified="No">1.000000e-02</Option>
    <Option name="TestRate" modified="Yes">10</Option>
    <Option name="EpochMonitoring" modified="No">False</Option>
    <Option name="Sampling" modified="No">1.000000e+00</Option>
    <Option name="SamplingEpoch" modified="No">1.000000e+00</Option>
    <Option name="SamplingImportance" modified="No">1.000000e+00</Option>
    <Option name="SamplingTraining" modified="No">True</Option>
    <Option name="SamplingTesting" modified="No">False</Option>
    <Option name="ResetStep" modified="No">50</Option>
    <Option name="Tau" modified="No">3.000000e+00</Option>
    <Option name="BPMode" modified="No">sequential</Option>
    <Option name="BatchSize" modified="No">-1</Option>
    <Option name="ConvergenceImprove" modified="No">1.000000e-30</Option>
    <Option name="ConvergenceTests" modified="No">-1</Option>
    <Option name="UseRegulator" modified="Yes">False</Option>
    <Option name="UpdateLimit" modified="No">10000</Option>
    <Option name="CalculateErrors" modified="No">False</Option>
    <Option name="WeightRange" modified="No">1.000000e+00</Option>
  </Options>
  <Variables NVar="10">
    <Variable VarIndex="0" Expression="(MtdPidTraits_mDeltaY)" Label="dY" Title="MTD DeltaY" Unit="cm" Internal="dY" Type="F" Min="-6.38423347e+01" Max="6.37711639e+01"/>
    <Variable VarIndex="1" Expression="MtdPidTraits_mDeltaZ" Label="dZ" Title="MTD DeltaZ" Unit="cm" Internal="dZ" Type="F" Min="-9.56476212e+01" Max="9.67803192e+01"/>
    <Variable VarIndex="2" Expression="Tracks_mNSigmaPion" Label="nSigmaPi" Title="n #sigma #pi" Unit="" Internal="nSigmaPi" Type="F" Min="-4.05999994e+00" Max="1.28199997e+01"/>
    <Variable VarIndex="3" Expression="Tracks_mNHitsFit" Label="nh" Title="N Hits Fit" Unit="" Internal="nh" Type="I" Min="1.50000000e+01" Max="4.50000000e+01"/>
    <Variable VarIndex="4" Expression="Tracks_mDCA" Label="dca" Title="DCA" Unit="cm" Internal="dca" Type="F" Min="0.00000000e+00" Max="6.47900009e+01"/>
    <Variable VarIndex="5" Expression="MtdPidTraits_mCell" Label="Cell" Title="MTD Cell" Unit="" Internal="Cell" Type="I" Min="0.00000000e+00" Max="1.10000000e+01"/>
    <Variable VarIndex="6" Expression="MtdPidTraits_mModule" Label="Module" Title="MTD Module" Unit="" Internal="Module" Type="I" Min="0.00000000e+00" Max="4.00000000e+00"/>
    <Variable VarIndex="7" Expression="MtdPidTraits_mBL" Label="BL" Title="MTD BL" Unit="" Internal="BL" Type="I" Min="0.00000000e+00" Max="2.90000000e+01"/>
    <Variable VarIndex="8" Expression="Tracks_mPt" Label="pT" Title="p_{T}" Unit="GeV/c" Internal="pT" Type="F" Min="1.00184906e+00" Max="6.89362669e+00"/>
    <Variable VarIndex="9" Expression="Tracks_mCharge" Label="charge" Title="q" Unit="" Internal="charge" Type="I" Min="-1.00000000e+00" Max="1.00000000e+00"/>
  </Variables>
  <Spectators NSpec="0"/>
  <Classes NClass="2">
    <Class Name="Signal" Index="0"/>
    <Class Name="Background" Index="1"/>
  </Classes>
  <Transformations NTransformations="1">
    <Transform Name="Normalize">
      <Selection>
        <Input NInputs="10">
          <Input Type="Variable" Label="dY" Expression="(MtdPidTraits_mDeltaY)"/>
          <Input Type="Variable" Label="dZ" Expression="MtdPidTraits_mDeltaZ"/>
          <Input Type="Variable" Label="nSigmaPi" Expression="Tracks_mNSigmaPion"/>
          <Input Type="Variable" Label="nh" Expression="Tracks_mNHitsFit"/>
          <Input Type="Variable" Label="dca" Expression="Tracks_mDCA"/>
          <Input Type="Variable" Label="Cell" Expression="MtdPidTraits_mCell"/>
          <Input Type="Variable" Label="Module" Expression="MtdPidTraits_mModule"/>
          <Input Type="Variable" Label="BL" Expression="MtdPidTraits_mBL"/>
          <Input Type="Variable" Label="pT" Expression="Tracks_mPt"/>
          <Input Type="Variable" Label="charge" Expression="Tracks_mCharge"/>
        </Input>
        <Output NOutputs="10">
          <Output Type="Variable" Label="dY" Expression="(MtdPidTraits_mDeltaY)"/>
          <Output Type="Variable" Label="dZ" Expression="MtdPidTraits_mDeltaZ"/>
          <Output Type="Variable" Label="nSigmaPi" Expression="Tracks_mNSigmaPion"/>
          <Output Type="Variable" Label="nh" Expression="Tracks_mNHitsFit"/>
          <Output Type="Variable" Label="dca" Expression="Tracks_mDCA"/>
          <Output Type="Variable" Label="Cell" Expression="MtdPidTraits_mCell"/>
          <Output Type="Variable" Label="Module" Expression="MtdPidTraits_mModule"/>
          <Output Type="Variable" Label="BL" Expression="MtdPidTraits_mBL"/>
          <Output Type="Variable" Label="pT" Expression="Tracks_mPt"/>
          <Output Type="Variable" Label="charge" Expression="Tracks_mCharge"/>
        </Output>
      </Selection>
      <Class ClassIndex="0">
        <Ranges>
          <Range Index="0" Min="-6.3842334747314453e+01" Max="6.3188926696777344e+01"/>
          <Range Index="1" Min="-9.4064727783203125e+01" Max="9.6780319213867188e+01"/>
          <Range Index="2" Min="-4.0599999427795410e+00" Max="1.2819999694824219e+01"/>
          <Range Index="3" Min="1.5000000000000000e+01" Max="4.5000000000000000e+01"/>
          <Range Index="4" Min="0.0000000000000000e+00" Max="2.2947000503540039e+01"/>
          <Range Index="5" Min="0.0000000000000000e+00" Max="1.1000000000000000e+01"/>
          <Range Index="6" Min="0.0000000000000000e+00" Max="4.0000000000000000e+00"/>
          <Range Index="7" Min="0.0000000000000000e+00" Max="2.9000000000000000e+01"/>
          <Range Index="8" Min="1.0023530721664429e+00" Max="3.0876636505126953e+00"/>
          <Range Index="9" Min="-1.0000000000000000e+00" Max="1.0000000000000000e+00"/>
        </Ranges>
      </Class>
      <Class ClassIndex="1">
        <Ranges>
          <Range Index="0" Min="-6.3836608886718750e+01" Max="6.3771163940429688e+01"/>
          <Range Index="1" Min="-9.5647621154785156e+01" Max="9.6572219848632812e+01"/>
          <Range Index="2" Min="-3.7500000000000000e+00" Max="1.1140000343322754e+01"/>
          <Range Index="3" Min="1.5000000000000000e+01" Max="4.5000000000000000e+01"/>
          <Range Index="4" Min="0.0000000000000000e+00" Max="6.4790000915527344e+01"/>
          <Range Index="5" Min="0.0000000000000000e+00" Max="1.1000000000000000e+01"/>
          <Range Index="6" Min="0.0000000000000000e+00" Max="4.0000000000000000e+00"/>
          <Range Index="7" Min="0.0000000000000000e+00" Max="2.9000000000000000e+01"/>
          <Range Index="8" Min="1.0018490552902222e+00" Max="6.8936266899108887e+00"/>
          <Range Index="9" Min="-1.0000000000000000e+00" Max="1.0000000000000000e+00"/>
        </Ranges>
      </Class>
      <Class ClassIndex="2">
        <Ranges>
          <Range Index="0" Min="-6.3842334747314453e+01" Max="6.3771163940429688e+01"/>
          <Range Index="1" Min="-9.5647621154785156e+01" Max="9.6780319213867188e+01"/>
          <Range Index="2" Min="-4.0599999427795410e+00" Max="1.2819999694824219e+01"/>
          <Range Index="3" Min="1.5000000000000000e+01" Max="4.5000000000000000e+01"/>
          <Range Index="4" Min="0.0000000000000000e+00" Max="6.4790000915527344e+01"/>
          <Range Index="5" Min="0.0000000000000000e+00" Max="1.1000000000000000e+01"/>
          <Range Index="6" Min="0.0000000000000000e+00" Max="4.0000000000000000e+00"/>
          <Range Index="7" Min="0.0000000000000000e+00" Max="2.9000000000000000e+01"/>
          <Range Index="8" Min="1.0018490552902222e+00" Max="6.8936266899108887e+00"/>
          <Range Index="9" Min="-1.0000000000000000e+00" Max="1.0000000000000000e+00"/>
        </Ranges>
      </Class>
    </Transform>
  </Transformations>
  <MVAPdfs/>
  <Weights>
    <Layout NLayers="5">
      <Layer Index="0" NNeurons="11">
        <Neuron NSynapses="15">
          3.5762585533945640e-01 1.6035319577541023e+00 -8.1846079847910114e-01 8.5000605375765748e-01 -3.3781293092195321e+00 -1.5364620131020166e+00 -1.1480275369960993e+00 8.9905855156105441e-01 -1.1371548893975811e+00 -1.3751334605075562e+00 -1.1508696677116623e+00 -4.0150247165156552e+00 -4.7897280587802216e-01 -5.2611487363442566e-02 -5.3323794437305827e-01 
        </Neuron>
        <Neuron NSynapses="15">
          -5.2738042339941171e-02 -7.8328334208516603e-01 4.7159987015209319e+00 4.6794349053892024e+00 -2.5657392647154509e-01 -5.3932775600585059e-01 -4.3390758314488460e+00 1.1404504296508484e+00 1.7744826666153213e-01 -6.7225656580227000e-01 -1.9245472282776979e-01 2.1875550492186235e-01 -6.0367575374711568e-01 -4.1687227352568748e+00 3.6874760268552729e+00 
        </Neuron>
        <Neuron NSynapses="15">
          -1.8105274424480744e+00 2.2485146413346864e+00 -1.7342034003629301e+00 2.0837524180234341e+00 -6.8094333680206676e-01 -1.5751574044747769e+00 -2.6307043027677874e+00 1.6510563756835670e+00 -1.5645061672442333e+00 1.2134683558470898e+00 4.6605658281245566e-01 6.1799741990144430e-01 1.8841888172283039e+00 8.5390624612444876e-01 -2.9040861897320940e+00 
        </Neuron>
        <Neuron NSynapses="15">
          -3.9907442961888471e+00 -2.6802511124274392e-01 6.6079411594124129e-03 -6.1171371890624063e-02 9.7942128989661932e-03 1.8997238502526752e+00 -2.4854273905928859e-02 -8.8754079454863244e-01 8.4817647424277798e-01 -1.1889578366259892e+00 2.4453786642699588e-01 8.1539917380292010e-02 -4.1922214042955830e-01 2.7701554919686405e-01 5.9787082577827881e-02 
        </Neuron>
        <Neuron NSynapses="15">
          7.2228208566071539e-02 2.1312055779534926e+00 1.4383098343264409e+00 -2.7794412077712645e+00 3.8491637868870565e-01 -1.9322852426386938e+00 -3.2530785237081322e-01 -5.7400711709758268e-01 1.0047199550685366e+00 -3.4148541375383784e-01 -2.1642194683333287e+00 -6.6179982010217930e-01 1.4642169980024324e+00 1.7452839537080764e+00 2.8280673723002625e+00 
        </Neuron>
        <Neuron NSynapses="15">
          -6.5160164690527067e-01 -7.4260633863595349e-01 -1.7387670832643246e-01 2.5412120463591502e-02 1.7020859115516293e-01 1.0566002890388881e+00 -3.2379835990976225e-01 5.8875943284093757e-01 -2.2201498539170911e-01 -1.7239576705535098e+00 -1.1782691673723409e+00 -3.2760883583730277e-01 -2.2131195514708852e+00 -1.1893163600478833e+00 -3.4913233510257974e-01 
        </Neuron>
        <Neuron NSynapses="15">
          -3.9530878975792993e-02 -3.9573118121977925e-02 1.2387044449383464e-02 5.2217624303698501e-02 -4.5161513385409746e-02 7.4334741185448494e-01 -3.9607843177424934e-01 -1.7000955408650815e+00 -8.9869178822178553e-01 4.5766880758603556e-01 -3.1769894183165955e-02 2.6074553523457781e-02 2.2524308806749424e-01 7.0161890305983313e-02 -3.9035151129333027e-02 
        </Neuron>
        <Neuron NSynapses="15">
          2.7650694902320479e-02 -5.7505930454713672e-01 3.5421076954220638e-03 5.5032691795148915e-03 2.8333427579143162e-02 -8.7670255199487035e-01 -2.6506121259090576e-02 1.2512553912074353e-01 -7.5256821404083102e-02 -1.9298589050486295e-01 -8.6492215960100160e-03 -5.8161818900577587e-04 8.9918684068163671e-03 -2.1025521943332176e-03 -8.2940479654538320e-03 
        </Neuron>
        <Neuron NSynapses="15">
          -8.9269594628265325e-01 1.5423403487917335e+00 4.0916661665021353e-01 2.9218275062417831e-01 4.8367867895394907e+00 -1.1990068007712311e+00 1.1887909084038664e+00 1.7127481413372148e-01 -1.4629879868518136e+00 1.4350210202723037e+00 3.5759183293521302e+00 -4.0300413597083828e+00 -4.7216403688259867e-01 -3.1709816326934890e+00 -2.7153860313075469e+00 
        </Neuron>
        <Neuron NSynapses="15">
          3.9324324414369225e+00 8.1490530483343293e-01 -1.8351216772673453e+00 -1.1634138448563978e-01 1.4602509728496130e-01 -2.6412276858677527e-02 1.0874675822596137e-02 1.8484869302085333e-01 -2.6885663007678534e-01 -1.1620538712474087e+00 -1.2131029968658756e-01 5.7871897608998260e-02 -4.2851445875237731e-01 -1.3750504762160500e+00 1.4141537340697097e+00 
        </Neuron>
        <Neuron NSynapses="15">
          -1.7696006525128078e+00 -1.2362324053723230e+00 1.9621894845307208e+00 -3.3316850196973674e-01 2.1192764353817517e+00 1.8748155053781739e+00 2.4030746621578540e+00 -2.9520723777636998e-01 5.4537944380834058e-01 -1.9847239124504514e+00 1.6418509334627189e+00 -2.2259731764138397e+00 -5.5734929729682958e-01 1.4018123685275882e-01 -2.1656302446468014e-02 
        </Neuron>
      </Layer>
      <Layer Index="1" NNeurons="16">
        <Neuron NSynapses="15">
          -6.9019155976512092e-01 -5.8315748304357851e-01 1.1649912101027451e+00 -4.7854841192643514e-02 -6.3685861882303096e-01 1.0505111521962591e+00 4.8497892264896003e-01 -4.4274935499186802e-01 1.2034182522111563e+00 6.5456259904944458e-01 3.2912946396767354e-02 1.1803489393477453e+00 -7.0378124837583478e-01 5.9503730973766700e-01 -1.3703046226571616e+00 
        </Neuron>
        <Neuron NSynapses="15">
          -1.3521348767698917e+00 1.9964488173325374e+00 1.8350501248394959e+00 -9.6765303256281054e-01 -7.7611308062904605e-01 3.5407470126220797e-01 8.3931386664908758e-01 1.5276844023068359e+00 -5.6703536804495314e-01 -1.0908770230641645e+00 -9.2316864607449445e-01 1.1770401071206926e+00 1.5088870733595932e+00 1.1952414069328197e+00 -5.1434918375504405e-03 
        </Neuron>
        <Neuron NSynapses="15">
          -3.3189534240001117e-01 -1.3105123190021568e+00 7.2166232366443106e-01 1.3373940940517801e+00 -1.0833285271393114e-01 -7.9310921065580764e-01 -3.3107426374793170e-01 1.5074213221700155e+00 -1.9520435524552322e+00 7.5257494211260423e-01 4.9762759295780151e-01 -4.3517794770700391e-01 1.5734193972158654e+00 9.2135265235624497e-01 6.9208951215832171e-01 
        </Neuron>
        <Neuron NSynapses="15">
          -8.8224068324956727e-03 1.2075914883780806e-01 -1.7505156699265791e+00 -1.5360455511746423e+00 1.0874435381967156e+00 7.2308416196817449e-01 2.2402392325466652e-01 -2.2183228209000871e+00 2.6736944308794794e+00 -9.4957647425675973e-01 -4.4571954123424379e-01 1.0671918343623734e+00 -1.7967129431526938e+00 1.5001068608464521e+00 1.0513422745618022e+00 
        </Neuron>
        <Neuron NSynapses="15">
          -1.1514770248964363e+00 -2.0925825546663899e+00 1.5096267169560515e-01 -1.2444679698689685e+00 -9.7921472329863313e-01 1.2053988177515171e+00 8.0056796857889911e-02 1.8052335026077110e-01 -3.5443681184583231e-01 2.0747649859063477e+00 -1.8258677733562141e+00 1.0986423709773547e+00 5.3269685812697672e-03 -1.0328902352020410e+00 -1.2711361974874764e+00 
        </Neuron>
        <Neuron NSynapses="15">
          -1.7156639230578787e+00 -1.1594771253633505e+00 -2.0986369756554741e+00 -2.0641604279585115e+00 -1.5660275441182456e+00 -5.7214183808436292e-01 -1.1698882925172986e+00 -1.1142706177415578e+00 1.6365398586286581e+00 -2.7709189234184395e-01 2.4033002522729888e-01 -5.7440219993204422e-01 8.7936828981647641e-01 1.3038298950306171e+00 1.6531280603791851e+00 
        </Neuron>
        <Neuron NSynapses="15">
          -6.9137156364221164e-01 -5.9516232602891483e-01 -9.6516449557307493e-01 1.0679127735288914e+00 -8.8575608221516655e-01 -3.6991262181544177e-01 -3.8512892545898680e-01 1.6835105501376415e+00 -1.0312425108517693e+00 7.5021067736302527e-01 -1.4982747400188753e-01 -9.5475314132121958e-01 2.5412774426646698e+00 -2.5033329481610302e-03 -3.8006500484855421e-01 
        </Neuron>
        <Neuron NSynapses="15">
          -1.0773886400846200e+00 2.4068171461399043e-01 1.2047470410792811e+00 -4.3514527476753726e-03 -5.5285001511400006e-02 4.6179060583748716e-01 3.6931334618932066e-01 -8.5310196922984347e-02 1.7629847131831411e-01 -2.4464293375801557e-01 -5.0648816634311145e-01 -8.3778253118979318e-01 -1.2724453608233315e+00 -9.7996819577184549e-02 -2.2250224373139829e+00 
        </Neuron>
        <Neuron NSynapses="15">
          -1.2221726751650739e+00 -2.6192589848774124e+00 1.6227446586312111e+00 -1.0417004233880283e+00 2.9370847266175053e+00 -2.3163619856931796e+00 1.0699993625062005e+00 8.6026808223862744e-02 6.6347722299786527e-01 1.2201783621818718e+00 -1.5140636048640728e+00 8.4271677501090200e-02 1.0428092092446286e+00 -2.5798460423925378e+00 -1.1242465521891911e+00 
        </Neuron>
        <Neuron NSynapses="15">
          -2.3383660776939519e+00 -4.1852271635752436e-01 1.8191334953982281e+00 -4.7458343643920270e-01 -9.6303957796608530e-01 -1.9567410540062138e-01 -7.2226529050892185e-01 -1.9586510785163669e+00 -1.4921756239185895e+00 -1.5485110049828921e+00 6.6691997452931184e-01 -8.2595701285718415e-01 -7.7952047864277085e-01 2.2349233162074378e+00 -4.9087962913373979e-02 
        </Neuron>
        <Neuron NSynapses="15">
          -1.8251874951676603e-01 1.6284343893065205e+00 -1.6075404636175097e+00 1.5233732328643814e+00 2.9289371339970655e-01 -1.4481982353617087e+00 -8.0526833095200490e-01 -9.9040517325576127e-01 5.2245487366969467e-01 -1.0544449454274816e+00 3.3828228119830603e+00 1.8161374502783982e+00 -6.7149820474030231e-01 -1.0836465293176503e+00 1.4160867258267238e+00 
        </Neuron>
        <Neuron NSynapses="15">
          -1.5405641724081687e+00 9.1868049705645360e-01 -1.7664629290686489e+00 -1.1439896010704009e+00 9.6189311735265182e-01 6.7844622162771784e-01 -3.4078476957031512e-01 -5.4810696360360978e-01 1.0192896118459520e+00 -1.4115926993672270e+00 -9.1841731613261335e-01 1.6904639044021053e-01 8.9696178964183726e-01 -1.7053195416668414e+00 6.3282139612648824e-01 
        </Neuron>
        <Neuron NSynapses="15">
          -2.2473905274587564e+00 -3.1707658417151746e-01 -8.6304325690197650e-02 9.8927900527355228e-01 -2.3995053128111339e+00 1.9226589672294114e+00 1.6170567772206372e+00 1.1582293131701795e+00 -7.2012918264328185e-01 5.5425912987753578e-01 -1.6980792661124617e+00 -6.7021932825337616e-01 -1.7457296899174618e-01 3.2807049864266156e-02 -1.5276386077793751e+00 
        </Neuron>
        <Neuron NSynapses="15">
          2.8308609260602557e-01 -1.4937370932030258e+00 -1.4280898694772923e+00 -2.5257724197849185e-01 9.3088894030037173e-01 -1.1637156308222913e+00 -1.5030471797156006e+00 -8.0993008567822167e-01 -5.1526311032878758e-01 -4.1581590627374036e-02 1.0009959466277596e+00 -2.4521059190359367e+00 -8.1746101400876359e-01 9.5235553186394550e-01 6.6888824526401558e-01 
        </Neuron>
        <Neuron NSynapses="15">
          1.3677526142392127e-01 2.3148279396673122e+00 1.1748432599222063e+00 1.1621274328660001e+00 2.0465334046588007e-01 -9.6333098735090594e-01 -9.5476207434157967e-02 1.2384861369549754e-01 3.4446264573105712e-01 1.0443559393264239e+00 7.6338195262230568e-02 8.0988980019940626e-01 1.8162049694154194e+00 1.4465068049019141e+00 -1.2343225632909871e+00 
        </Neuron>
        <Neuron NSynapses="15">
          1.9886480013383823e+00 -1.9493965227056245e-01 -2.2456763348458137e+00 -8.5256713030326903e-01 2.4011510996274479e-02 1.8514014293198131e-01 -9.4574919153546502e-02 1.2473386092072689e+00 2.0379058451029377e+00 1.4728804538582549e-01 2.1171009426161902e+00 1.6551148816020986e+00 1.7312255841141694e-01 -1.5720647265437266e+00 2.1409836645968667e+00 
        </Neuron>
      </Layer>
      <Layer Index="2" NNeurons="16">
        <Neuron NSynapses="15">
          -1.2176510649742678e+00 4.7095522893548403e-01 1.0070087050700296e+00 -6.8701545894952587e-01 -6.1994042686535222e-01 -4.7828377282413720e-01 -1.0779092296120223e+00 3.0401896974909864e-03 -1.6294781186924374e+00 5.8465560909277170e-01 -1.0507241926073363e-01 2.0841586229421125e+00 1.4666082427495293e+00 1.2313641432020652e+00 -4.1742514899981792e-01 
        </Neuron>
        <Neuron NSynapses="15">
          -4.5564987081741248e-01 7.3389290915626668e-02 4.5555023091766803e-02 -4.9338883705536130e-02 -1.6657605113098636e-01 3.2663091813508960e-02 2.3978615105575778e-03 2.6396386545506562e-01 -7.3430392272348699e-01 -4.8823452228252892e-03 -3.5433194512378036e-01 1.1678911515879940e-02 -1.2887579788101071e+00 -1.2972285322127131e-02 1.3057693129317469e-03 
        </Neuron>
        <Neuron NSynapses="15">
          1.2969258962291688e+00 8.9250115280425957e-01 -4.2037365202538662e-01 -1.6118820424020646e+00 -6.1239462021185875e-01 -8.8328277764420826e-01 -1.8018747723222865e+00 -1.7112835923599429e-02 -6.7036129830044766e-01 -1.7064369125917420e+00 1.3300950591217917e+00 7.6624346534122068e-01 -6.5447590169176895e-01 -1.9818169241958403e-01 -9.7613893435912935e-01 
        </Neuron>
        <Neuron NSynapses="15">
          1.1500105988448817e+00 -5.5086541375722275e-01 1.3124563515789589e-01 4.0355492727943409e-01 3.7414081981702291e-01 -1.6086698977472069e-01 2.3657768970468600e-02 -1.7000759060577528e+00 6.3173458462478360e-01 1.1990613956011688e-01 -6.3585923849099846e-01 -5.0565454528360932e-03 6.9773283911698625e-01 -2.1515705700606369e-03 1.0096716892254544e-01 
        </Neuron>
        <Neuron NSynapses="15">
          9.7357614257535008e-01 -7.1304841678644670e-01 -1.9108970998744133e+00 2.3586860982022395e-01 2.4155515078109775e+00 -5.1621326732187660e-02 -3.7822435875665228e-01 -2.3347571178864177e+00 1.2548824161052015e+00 4.5564269540233643e-01 -9.8932129340395902e-01 2.3051414429198078e-01 -3.7660850040342597e-01 7.7453592734694376e-01 1.3976613461408178e+00 
        </Neuron>
        <Neuron NSynapses="15">
          -7.2011252511663260e-01 -4.4357057550767265e-01 1.4730359338866126e+00 1.0014437376387768e+00 1.5923088750149184e-01 8.9631362909732204e-01 -1.0421935888363809e+00 -7.6086636982445510e-01 8.9648391340106670e-01 6.7884073859719923e-02 -1.4309401657523671e-01 -2.0039997939027496e+00 -1.1359701393452277e+00 -1.5741450516840920e+00 1.0311020787267791e-01 
        </Neuron>
        <Neuron NSynapses="15">
          -2.0917752013088804e+00 -4.2877044386698476e-01 -3.5648294789700286e-01 1.2354413804648519e+00 -6.4974441636927516e-01 -1.1475265609070877e+00 1.7582248301618120e+00 2.3148331852032458e+00 7.6933847324989557e-01 -9.2256210563034569e-02 -1.2868744220270070e+00 9.1118182575138151e-01 -1.0820859970769325e+00 6.7203613645860250e-01 -8.0734636158613304e-01 
        </Neuron>
        <Neuron NSynapses="15">
          7.0481350430009937e-01 -5.8432071895098836e-01 2.7278552553317487e-03 -3.5556032774137644e-02 2.3328835832701600e-01 -8.0281401543817646e-02 1.1800773909203614e-02 -4.7648459635584806e-01 3.0044700936529967e-01 4.6730582057751345e-02 7.5000078109640378e-01 9.5140726933296386e-03 3.6508956548637667e-01 5.7849570940456757e-02 -3.5315753219356538e-02 
        </Neuron>
        <Neuron NSynapses="15">
          1.2356327362035648e+00 5.0231607937313771e-01 6.7309924331962068e-01 1.0345024957263351e+00 -1.7343078320992671e+00 -6.7203246775388059e-01 -5.3800114439089153e-01 4.1657603774335367e-01 -3.9585837232221960e-01 -1.4618587725431256e-01 -3.6470070723119802e-01 2.7079043505983119e-01 -1.5938594219175537e+00 -3.9150459708864160e-01 -1.2040804352834533e+00 
        </Neuron>
        <Neuron NSynapses="15">
          1.9834225055245627e-01 7.3829761353321310e-01 -5.4844132148047113e-02 -1.5175806577885456e-01 1.2869312204287253e-01 8.0280094413061678e-02 -3.8768930852113137e-02 -2.3755515976870600e-01 4.6604725863359336e-01 -5.7304079451152436e-02 6.7128217977081206e-01 -8.2400896883383118e-02 5.7845498329633260e-01 -1.3594934141902815e-02 -7.0402539799312255e-02 
        </Neuron>
        <Neuron NSynapses="15">
          -1.8114213647140460e+00 -5.0520950397706677e-01 -8.4897950594711669e-01 8.6403862653615693e-01 -1.4263929630820762e+00 7.2159374554584610e-01 1.2648138961609219e+00 1.1830697370645200e+00 9.6716339102219551e-01 6.0935306151044200e-01 4.1446232250964082e-01 -2.9720043238262528e-01 -2.0909026921165093e+00 -7.7870761347927808e-01 -8.6296778132500651e-01 
        </Neuron>
        <Neuron NSynapses="15">
          5.0288537777436904e-01 -5.8708818241002503e-01 2.4675923194843262e-02 1.6973813855574502e-01 3.2113490850041937e-01 -1.9403072732148148e-03 -1.0486942504165767e-02 -9.0879927730275825e-02 5.6987941946300669e-01 3.1153946669039576e-02 -2.4914679025788472e-01 -4.2876138103233041e-02 8.9227767768389210e-01 -5.6382998044886785e-02 1.3917988560088337e-01 
        </Neuron>
        <Neuron NSynapses="15">
          -1.2206750745349302e+00 9.1062317973080342e-01 8.6154598407476524e-01 4.4619161030617666e-01 1.5538028590342698e+00 -1.3462048922061522e+00 2.3284932017115023e-01 -1.2181878830900990e+00 -1.3607511243852639e+00 -1.1945008979383933e+00 -7.3112235977804618e-01 9.2961172576569495e-01 -2.1100578623306059e+00 -5.8377420673106162e-01 -3.8742500904480220e-01 
        </Neuron>
        <Neuron NSynapses="15">
          7.3017831010439127e-01 7.8315003700081820e-01 1.2113822335786650e+00 -2.1598210219672640e+00 1.9385732018235843e-01 5.0515052592149534e-01 1.4188303590581036e-01 -1.0508205797297925e+00 -1.5330931334453310e-01 -2.7491672879485857e-01 3.2987117405477323e-01 1.4580147420192557e+00 -2.1519299452011337e-01 -3.2090838860099496e-01 -6.6853354090214545e-01 
        </Neuron>
        <Neuron NSynapses="15">
          1.8968734340571958e+00 1.2885479489618273e-01 1.2863715336481993e+00 -9.2151706138870393e-01 -3.5893213381210742e-01 1.2669389225524579e+00 3.5544055574060590e-01 9.1780964955063937e-01 3.0764783340864110e-01 -6.0491397567081884e-01 -8.4201255263161723e-01 -1.0648525945280212e+00 9.9000727295400814e-01 -1.6850168149013665e+00 -5.7086039292588093e-03 
        </Neuron>
        <Neuron NSynapses="15">
          5.3801781518053249e-01 -1.0987189851227159e+00 7.9811048707932275e-01 -2.3262744961807336e+00 -4.7298475596182632e-01 -3.9312587672366905e-01 -8.3590000204431991e-01 3.6564776867700058e-02 2.0755646549304667e+00 -1.5651456724145605e+00 -1.6062726365424870e-02 -8.7827375440899758e-01 1.0138179366498734e+00 6.6074912365058525e-02 -9.5517241140316700e-01 
        </Neuron>
      </Layer>
      <Layer Index="3" NNeurons="16">
        <Neuron NSynapses="1">
          -1.2483779052428601e-01 
        </Neuron>
        <Neuron NSynapses="1">
          -7.6692220540498887e-02 
        </Neuron>
        <Neuron NSynapses="1">
          -6.9550014728377546e-02 
        </Neuron>
        <Neuron NSynapses="1">
          -1.2072687005881640e-01 
        </Neuron>
        <Neuron NSynapses="1">
          -8.4554320440007019e-02 
        </Neuron>
        <Neuron NSynapses="1">
          -4.9928629772596739e-02 
        </Neuron>
        <Neuron NSynapses="1">
          -3.0181493845286907e-02 
        </Neuron>
        <Neuron NSynapses="1">
          3.7259965324455760e-02 
        </Neuron>
        <Neuron NSynapses="1">
          -1.1968697845370357e-01 
        </Neuron>
        <Neuron NSynapses="1">
          3.7206504983146684e-03 
        </Neuron>
        <Neuron NSynapses="1">
          -2.6123828010298206e-01 
        </Neuron>
        <Neuron NSynapses="1">
          3.3706248575382902e-02 
        </Neuron>
        <Neuron NSynapses="1">
          -1.7180488948516184e-01 
        </Neuron>
        <Neuron NSynapses="1">
          1.7665297064250428e-03 
        </Neuron>
        <Neuron NSynapses="1">
          -7.3469914846705231e-02 
        </Neuron>
        <Neuron NSynapses="1">
          2.3978481136373417e-01 
        </Neuron>
      </Layer>
      <Layer Index="4" NNeurons="1">
        <Neuron NSynapses="0"/>
      </Layer>
    </Layout>
  </Weights>
</MethodSetup>
